digraph Tree {
node [shape=box, style="filled, rounded", color="black", fontname="helvetica"] ;
edge [fontname="helvetica"] ;
0 [label=<feature_25 &le; 5.4<br/>friedman_mse = 0.25<br/>samples = 50311<br/>value = 0.0>, fillcolor="#f2c09c"] ;
1 [label=<feature_13 &le; 52.002<br/>friedman_mse = 0.187<br/>samples = 17121<br/>value = -0.25>, fillcolor="#f4c8a8"] ;
0 -> 1 [labeldistance=2.5, labelangle=45, headlabel="True"] ;
2 [label=<feature_20 &le; 140.0<br/>friedman_mse = 0.117<br/>samples = 3770<br/>value = -0.365>, fillcolor="#f4ccae"] ;
1 -> 2 ;
3 [label=<feature_11 &le; 12.6<br/>friedman_mse = 0.083<br/>samples = 3087<br/>value = -0.409>, fillcolor="#f5cdb0"] ;
2 -> 3 ;
4 [label=<feature_2 &le; 120.178<br/>friedman_mse = 0.052<br/>samples = 1684<br/>value = -0.445>, fillcolor="#f5ceb2"] ;
3 -> 4 ;
5 [label=<feature_16 &le; 4.694<br/>friedman_mse = 0.019<br/>samples = 1231<br/>value = -0.481>, fillcolor="#f5cfb4"] ;
4 -> 5 ;
6 [label=<feature_4 &le; 41.65<br/>friedman_mse = 0.035<br/>samples = 629<br/>value = -0.463>, fillcolor="#f5cfb3"] ;
5 -> 6 ;
7 [label=<friedman_mse = 0.21<br/>samples = 10<br/>value = 0.8>, fillcolor="#eda774"] ;
6 -> 7 ;
8 [label=<feature_23 &le; 1.142<br/>friedman_mse = 0.025<br/>samples = 619<br/>value = -0.474>, fillcolor="#f5cfb3"] ;
6 -> 8 ;
9 [label=<feature_10 &le; 7.95<br/>friedman_mse = 0.009<br/>samples = 457<br/>value = -0.491>, fillcolor="#f5cfb4"] ;
8 -> 9 ;
10 [label=<friedman_mse = 0.021<br/>samples = 187<br/>value = -1.914>, fillcolor="#fefcfb"] ;
9 -> 10 ;
11 [label=<friedman_mse = 0.0<br/>samples = 270<br/>value = -2.0>, fillcolor="#ffffff"] ;
9 -> 11 ;
12 [label=<feature_14 &le; 29.131<br/>friedman_mse = 0.069<br/>samples = 162<br/>value = -0.426>, fillcolor="#f5cdb1"] ;
8 -> 12 ;
13 [label=<friedman_mse = 0.045<br/>samples = 148<br/>value = -1.811>, fillcolor="#fef9f6"] ;
12 -> 13 ;
14 [label=<friedman_mse = 0.23<br/>samples = 14<br/>value = -0.571>, fillcolor="#f6d2b8"] ;
12 -> 14 ;
15 [label=<feature_12 &le; 37.894<br/>friedman_mse = 0.002<br/>samples = 602<br/>value = -0.498>, fillcolor="#f5d0b5"] ;
5 -> 15 ;
16 [label=<feature_1 &le; 35.0<br/>friedman_mse = 0.023<br/>samples = 43<br/>value = -0.477>, fillcolor="#f5cfb4"] ;
15 -> 16 ;
17 [label=<friedman_mse = -0.0<br/>samples = 33<br/>value = -2.0>, fillcolor="#ffffff"] ;
16 -> 17 ;
18 [label=<friedman_mse = 0.09<br/>samples = 10<br/>value = -1.6>, fillcolor="#fcf2eb"] ;
16 -> 18 ;
19 [label=<feature_3 &le; 79.5<br/>friedman_mse = 0.0<br/>samples = 559<br/>value = -0.5>, fillcolor="#f5d0b5"] ;
15 -> 19 ;
20 [label=<feature_17 &le; 61.44<br/>friedman_mse = 0.0<br/>samples = 503<br/>value = -0.5>, fillcolor="#f5d0b5"] ;
19 -> 20 ;
21 [label=<friedman_mse = -0.0<br/>samples = 129<br/>value = -2.0>, fillcolor="#ffffff"] ;
20 -> 21 ;
22 [label=<friedman_mse = 0.0<br/>samples = 374<br/>value = -2.0>, fillcolor="#ffffff"] ;
20 -> 22 ;
23 [label=<friedman_mse = -0.0<br/>samples = 56<br/>value = -2.0>, fillcolor="#ffffff"] ;
19 -> 23 ;
24 [label=<feature_1 &le; 56.5<br/>friedman_mse = 0.128<br/>samples = 453<br/>value = -0.35>, fillcolor="#f4cbad"] ;
4 -> 24 ;
25 [label=<feature_7 &le; 4.134<br/>friedman_mse = 0.026<br/>samples = 298<br/>value = -0.473>, fillcolor="#f5cfb3"] ;
24 -> 25 ;
26 [label=<feature_19 &le; 17.408<br/>friedman_mse = 0.088<br/>samples = 41<br/>value = -0.402>, fillcolor="#f5cdb0"] ;
25 -> 26 ;
27 [label=<friedman_mse = -0.0<br/>samples = 24<br/>value = -2.0>, fillcolor="#ffffff"] ;
26 -> 27 ;
28 [label=<friedman_mse = 0.18<br/>samples = 17<br/>value = -1.059>, fillcolor="#f9e1d0"] ;
26 -> 28 ;
29 [label=<feature_5 &le; 8.718<br/>friedman_mse = 0.015<br/>samples = 257<br/>value = -0.484>, fillcolor="#f5cfb4"] ;
25 -> 29 ;
30 [label=<feature_19 &le; 19.5<br/>friedman_mse = 0.0<br/>samples = 218<br/>value = -0.5>, fillcolor="#f5d0b5"] ;
29 -> 30 ;
31 [label=<friedman_mse = -0.0<br/>samples = 131<br/>value = -2.0>, fillcolor="#ffffff"] ;
30 -> 31 ;
32 [label=<friedman_mse = 0.0<br/>samples = 87<br/>value = -2.0>, fillcolor="#ffffff"] ;
30 -> 32 ;
33 [label=<feature_16 &le; 4.264<br/>friedman_mse = 0.092<br/>samples = 39<br/>value = -0.397>, fillcolor="#f5cdb0"] ;
29 -> 33 ;
34 [label=<friedman_mse = 0.149<br/>samples = 11<br/>value = -1.273>, fillcolor="#fae8db"] ;
33 -> 34 ;
35 [label=<friedman_mse = 0.066<br/>samples = 28<br/>value = -1.714>, fillcolor="#fdf6f1"] ;
33 -> 35 ;
36 [label=<feature_4 &le; 65.891<br/>friedman_mse = 0.237<br/>samples = 155<br/>value = -0.113>, fillcolor="#f3c4a2"] ;
24 -> 36 ;
37 [label=<feature_24 &le; 1.359<br/>friedman_mse = 0.066<br/>samples = 42<br/>value = -0.429>, fillcolor="#f5cdb1"] ;
36 -> 37 ;
38 [label=<friedman_mse = 0.198<br/>samples = 11<br/>value = -0.909>, fillcolor="#f8ddc9"] ;
37 -> 38 ;
39 [label=<friedman_mse = -0.0<br/>samples = 31<br/>value = -2.0>, fillcolor="#ffffff"] ;
37 -> 39 ;
40 [label=<feature_11 &le; 11.601<br/>friedman_mse = 0.25<br/>samples = 113<br/>value = 0.004>, fillcolor="#f2c09c"] ;
36 -> 40 ;
41 [label=<friedman_mse = 0.09<br/>samples = 10<br/>value = -1.6>, fillcolor="#fcf2eb"] ;
40 -> 41 ;
42 [label=<feature_12 &le; 43.215<br/>friedman_mse = 0.248<br/>samples = 103<br/>value = 0.044>, fillcolor="#f2bf9a"] ;
40 -> 42 ;
43 [label=<friedman_mse = 0.083<br/>samples = 33<br/>value = -1.636>, fillcolor="#fdf4ed"] ;
42 -> 43 ;
44 [label=<friedman_mse = 0.184<br/>samples = 70<br/>value = 1.029>, fillcolor="#eba069"] ;
42 -> 44 ;
45 [label=<feature_10 &le; 7.702<br/>friedman_mse = 0.117<br/>samples = 1403<br/>value = -0.365>, fillcolor="#f4cbae"] ;
3 -> 45 ;
46 [label=<feature_0 &le; 1.5<br/>friedman_mse = 0.04<br/>samples = 364<br/>value = -0.459>, fillcolor="#f5ceb3"] ;
45 -> 46 ;
47 [label=<feature_18 &le; 4.887<br/>friedman_mse = 0.092<br/>samples = 127<br/>value = -0.398>, fillcolor="#f5cdb0"] ;
46 -> 47 ;
48 [label=<friedman_mse = -0.0<br/>samples = 53<br/>value = -2.0>, fillcolor="#ffffff"] ;
47 -> 48 ;
49 [label=<feature_7 &le; 4.626<br/>friedman_mse = 0.145<br/>samples = 74<br/>value = -0.324>, fillcolor="#f4caac"] ;
47 -> 49 ;
50 [label=<feature_12 &le; 43.243<br/>friedman_mse = 0.247<br/>samples = 29<br/>value = -0.052>, fillcolor="#f2c29f"] ;
49 -> 50 ;
51 [label=<friedman_mse = 0.213<br/>samples = 13<br/>value = -0.769>, fillcolor="#f7d8c2"] ;
50 -> 51 ;
52 [label=<friedman_mse = 0.246<br/>samples = 16<br/>value = 0.25>, fillcolor="#f0b890"] ;
50 -> 52 ;
53 [label=<friedman_mse = -0.0<br/>samples = 45<br/>value = -2.0>, fillcolor="#ffffff"] ;
49 -> 53 ;
54 [label=<feature_23 &le; 2.049<br/>friedman_mse = 0.008<br/>samples = 237<br/>value = -0.492>, fillcolor="#f5cfb4"] ;
46 -> 54 ;
55 [label=<feature_12 &le; 42.764<br/>friedman_mse = 0.0<br/>samples = 220<br/>value = -0.5>, fillcolor="#f5d0b5"] ;
54 -> 55 ;
56 [label=<friedman_mse = -0.0<br/>samples = 125<br/>value = -2.0>, fillcolor="#ffffff"] ;
55 -> 56 ;
57 [label=<feature_16 &le; 4.099<br/>friedman_mse = 0.0<br/>samples = 95<br/>value = -0.5>, fillcolor="#f5d0b5"] ;
55 -> 57 ;
58 [label=<friedman_mse = 0.0<br/>samples = 15<br/>value = -2.0>, fillcolor="#ffffff"] ;
57 -> 58 ;
59 [label=<friedman_mse = -0.0<br/>samples = 80<br/>value = -2.0>, fillcolor="#ffffff"] ;
57 -> 59 ;
60 [label=<friedman_mse = 0.104<br/>samples = 17<br/>value = -1.529>, fillcolor="#fcf0e8"] ;
54 -> 60 ;
61 [label=<feature_13 &le; 41.114<br/>friedman_mse = 0.14<br/>samples = 1039<br/>value = -0.332>, fillcolor="#f4caac"] ;
45 -> 61 ;
62 [label=<feature_7 &le; 4.701<br/>friedman_mse = 0.043<br/>samples = 269<br/>value = -0.455>, fillcolor="#f5ceb3"] ;
61 -> 62 ;
63 [label=<feature_4 &le; 73.05<br/>friedman_mse = 0.0<br/>samples = 188<br/>value = -0.5>, fillcolor="#f5d0b5"] ;
62 -> 63 ;
64 [label=<friedman_mse = -0.0<br/>samples = 128<br/>value = -2.0>, fillcolor="#ffffff"] ;
63 -> 64 ;
65 [label=<feature_21 &le; 7.695<br/>friedman_mse = 0.0<br/>samples = 60<br/>value = -0.5>, fillcolor="#f5d0b5"] ;
63 -> 65 ;
66 [label=<friedman_mse = 0.0<br/>samples = 13<br/>value = -2.0>, fillcolor="#ffffff"] ;
65 -> 66 ;
67 [label=<friedman_mse = -0.0<br/>samples = 47<br/>value = -2.0>, fillcolor="#ffffff"] ;
65 -> 67 ;
68 [label=<feature_18 &le; 5.916<br/>friedman_mse = 0.126<br/>samples = 81<br/>value = -0.352>, fillcolor="#f4cbad"] ;
62 -> 68 ;
69 [label=<feature_9 &le; 176.926<br/>friedman_mse = 0.015<br/>samples = 67<br/>value = -0.485>, fillcolor="#f5cfb4"] ;
68 -> 69 ;
70 [label=<friedman_mse = 0.076<br/>samples = 12<br/>value = -1.667>, fillcolor="#fdf4ee"] ;
69 -> 70 ;
71 [label=<friedman_mse = -0.0<br/>samples = 55<br/>value = -2.0>, fillcolor="#ffffff"] ;
69 -> 71 ;
72 [label=<friedman_mse = 0.168<br/>samples = 14<br/>value = 1.143>, fillcolor="#eb9c63"] ;
68 -> 72 ;
73 [label=<feature_11 &le; 12.699<br/>friedman_mse = 0.167<br/>samples = 770<br/>value = -0.288>, fillcolor="#f4c9aa"] ;
61 -> 73 ;
74 [label=<friedman_mse = -0.0<br/>samples = 16<br/>value = 2.0>, fillcolor="#e58139"] ;
73 -> 74 ;
75 [label=<feature_0 &le; 1.5<br/>friedman_mse = 0.157<br/>samples = 754<br/>value = -0.305>, fillcolor="#f4caab"] ;
73 -> 75 ;
76 [label=<feature_16 &le; 4.571<br/>friedman_mse = 0.224<br/>samples = 320<br/>value = -0.163>, fillcolor="#f3c5a4"] ;
75 -> 76 ;
77 [label=<friedman_mse = 0.25<br/>samples = 159<br/>value = -0.038>, fillcolor="#f2c19e"] ;
76 -> 77 ;
78 [label=<friedman_mse = 0.152<br/>samples = 161<br/>value = -1.255>, fillcolor="#fae8da"] ;
76 -> 78 ;
79 [label=<feature_6 &le; 0.586<br/>friedman_mse = 0.082<br/>samples = 434<br/>value = -0.41>, fillcolor="#f5cdb0"] ;
75 -> 79 ;
80 [label=<friedman_mse = 0.133<br/>samples = 165<br/>value = -1.37>, fillcolor="#fbebe0"] ;
79 -> 80 ;
81 [label=<friedman_mse = 0.046<br/>samples = 269<br/>value = -1.807>, fillcolor="#fef9f5"] ;
79 -> 81 ;
82 [label=<feature_11 &le; 11.839<br/>friedman_mse = 0.221<br/>samples = 683<br/>value = -0.169>, fillcolor="#f3c5a4"] ;
2 -> 82 ;
83 [label=<feature_15 &le; 23.445<br/>friedman_mse = 0.017<br/>samples = 58<br/>value = -0.483>, fillcolor="#f5cfb4"] ;
82 -> 83 ;
84 [label=<feature_12 &le; 43.61<br/>friedman_mse = 0.038<br/>samples = 25<br/>value = -0.46>, fillcolor="#f5ceb3"] ;
83 -> 84 ;
85 [label=<friedman_mse = 0.083<br/>samples = 11<br/>value = -1.636>, fillcolor="#fdf4ed"] ;
84 -> 85 ;
86 [label=<friedman_mse = -0.0<br/>samples = 14<br/>value = -2.0>, fillcolor="#ffffff"] ;
84 -> 86 ;
87 [label=<friedman_mse = -0.0<br/>samples = 33<br/>value = -2.0>, fillcolor="#ffffff"] ;
83 -> 87 ;
88 [label=<feature_16 &le; 5.144<br/>friedman_mse = 0.23<br/>samples = 625<br/>value = -0.14>, fillcolor="#f3c4a3"] ;
82 -> 88 ;
89 [label=<feature_4 &le; 87.429<br/>friedman_mse = 0.246<br/>samples = 388<br/>value = -0.064>, fillcolor="#f2c29f"] ;
88 -> 89 ;
90 [label=<feature_1 &le; 57.5<br/>friedman_mse = 0.225<br/>samples = 257<br/>value = -0.158>, fillcolor="#f3c5a4"] ;
89 -> 90 ;
91 [label=<feature_26 &le; 1.5<br/>friedman_mse = 0.071<br/>samples = 142<br/>value = -0.423>, fillcolor="#f5cdb1"] ;
90 -> 91 ;
92 [label=<friedman_mse = 0.16<br/>samples = 10<br/>value = 1.2>, fillcolor="#ea9a61"] ;
91 -> 92 ;
93 [label=<feature_12 &le; 48.007<br/>friedman_mse = 0.022<br/>samples = 132<br/>value = -0.477>, fillcolor="#f5cfb4"] ;
91 -> 93 ;
94 [label=<friedman_mse = -0.0<br/>samples = 121<br/>value = -2.0>, fillcolor="#ffffff"] ;
93 -> 94 ;
95 [label=<friedman_mse = 0.198<br/>samples = 11<br/>value = -0.909>, fillcolor="#f8ddc9"] ;
93 -> 95 ;
96 [label=<feature_9 &le; 246.99<br/>friedman_mse = 0.221<br/>samples = 115<br/>value = 0.17>, fillcolor="#f1bb94"] ;
90 -> 96 ;
97 [label=<feature_9 &le; 156.335<br/>friedman_mse = 0.193<br/>samples = 103<br/>value = 0.238>, fillcolor="#f0b990"] ;
96 -> 97 ;
98 [label=<friedman_mse = 0.213<br/>samples = 13<br/>value = -0.769>, fillcolor="#f7d8c2"] ;
97 -> 98 ;
99 [label=<friedman_mse = 0.16<br/>samples = 90<br/>value = 1.2>, fillcolor="#ea9a61"] ;
97 -> 99 ;
100 [label=<friedman_mse = 0.076<br/>samples = 12<br/>value = -1.667>, fillcolor="#fdf4ee"] ;
96 -> 100 ;
101 [label=<feature_21 &le; 10.262<br/>friedman_mse = 0.236<br/>samples = 131<br/>value = 0.118>, fillcolor="#f1bc96"] ;
89 -> 101 ;
102 [label=<feature_4 &le; 101.108<br/>friedman_mse = 0.13<br/>samples = 26<br/>value = -0.346>, fillcolor="#f4cbad"] ;
101 -> 102 ;
103 [label=<friedman_mse = 0.204<br/>samples = 14<br/>value = -0.857>, fillcolor="#f8dbc6"] ;
102 -> 103 ;
104 [label=<friedman_mse = 0.0<br/>samples = 12<br/>value = -2.0>, fillcolor="#ffffff"] ;
102 -> 104 ;
105 [label=<feature_11 &le; 13.712<br/>friedman_mse = 0.196<br/>samples = 105<br/>value = 0.233>, fillcolor="#f0b990"] ;
101 -> 105 ;
106 [label=<feature_23 &le; 1.011<br/>friedman_mse = 0.219<br/>samples = 83<br/>value = 0.175>, fillcolor="#f1ba93"] ;
105 -> 106 ;
107 [label=<friedman_mse = 0.222<br/>samples = 18<br/>value = -0.667>, fillcolor="#f6d5bd"] ;
106 -> 107 ;
108 [label=<friedman_mse = 0.178<br/>samples = 65<br/>value = 1.077>, fillcolor="#eb9e67"] ;
106 -> 108 ;
109 [label=<feature_16 &le; 4.789<br/>friedman_mse = 0.043<br/>samples = 22<br/>value = 0.455>, fillcolor="#efb285"] ;
105 -> 109 ;
110 [label=<friedman_mse = 0.09<br/>samples = 10<br/>value = 1.6>, fillcolor="#e88e4d"] ;
109 -> 110 ;
111 [label=<friedman_mse = 0.0<br/>samples = 12<br/>value = 2.0>, fillcolor="#e58139"] ;
109 -> 111 ;
112 [label=<feature_8 &le; 33.792<br/>friedman_mse = 0.18<br/>samples = 237<br/>value = -0.264>, fillcolor="#f4c8a9"] ;
88 -> 112 ;
113 [label=<feature_5 &le; 6.13<br/>friedman_mse = 0.247<br/>samples = 109<br/>value = -0.05>, fillcolor="#f2c29e"] ;
112 -> 113 ;
114 [label=<feature_17 &le; 89.725<br/>friedman_mse = 0.028<br/>samples = 35<br/>value = -0.471>, fillcolor="#f5cfb3"] ;
113 -> 114 ;
115 [label=<friedman_mse = -0.0<br/>samples = 25<br/>value = -2.0>, fillcolor="#ffffff"] ;
114 -> 115 ;
116 [label=<friedman_mse = 0.09<br/>samples = 10<br/>value = -1.6>, fillcolor="#fcf2eb"] ;
114 -> 116 ;
117 [label=<feature_15 &le; 24.816<br/>friedman_mse = 0.228<br/>samples = 74<br/>value = 0.149>, fillcolor="#f1bb95"] ;
113 -> 117 ;
118 [label=<feature_13 &le; 48.927<br/>friedman_mse = 0.191<br/>samples = 62<br/>value = 0.242>, fillcolor="#f0b890"] ;
117 -> 118 ;
119 [label=<friedman_mse = 0.137<br/>samples = 49<br/>value = 1.347>, fillcolor="#e99659"] ;
118 -> 119 ;
120 [label=<friedman_mse = 0.237<br/>samples = 13<br/>value = -0.462>, fillcolor="#f5cfb3"] ;
118 -> 120 ;
121 [label=<friedman_mse = 0.139<br/>samples = 12<br/>value = -1.333>, fillcolor="#fbeade"] ;
117 -> 121 ;
122 [label=<feature_21 &le; 17.817<br/>friedman_mse = 0.052<br/>samples = 128<br/>value = -0.445>, fillcolor="#f5ceb2"] ;
112 -> 122 ;
123 [label=<friedman_mse = -0.0<br/>samples = 111<br/>value = -2.0>, fillcolor="#ffffff"] ;
122 -> 123 ;
124 [label=<friedman_mse = 0.242<br/>samples = 17<br/>value = -0.353>, fillcolor="#f4cbad"] ;
122 -> 124 ;
125 [label=<feature_18 &le; 4.721<br/>friedman_mse = 0.202<br/>samples = 13351<br/>value = -0.218>, fillcolor="#f3c7a7"] ;
1 -> 125 ;
126 [label=<feature_14 &le; 29.023<br/>friedman_mse = 0.116<br/>samples = 4319<br/>value = -0.366>, fillcolor="#f4ccae"] ;
125 -> 126 ;
127 [label=<feature_17 &le; 70.734<br/>friedman_mse = 0.097<br/>samples = 3747<br/>value = -0.391>, fillcolor="#f5ccaf"] ;
126 -> 127 ;
128 [label=<feature_15 &le; 14.054<br/>friedman_mse = 0.051<br/>samples = 2126<br/>value = -0.446>, fillcolor="#f5ceb2"] ;
127 -> 128 ;
129 [label=<feature_23 &le; 1.29<br/>friedman_mse = 0.024<br/>samples = 578<br/>value = -0.476>, fillcolor="#f5cfb4"] ;
128 -> 129 ;
130 [label=<feature_9 &le; 210.5<br/>friedman_mse = 0.003<br/>samples = 329<br/>value = -0.497>, fillcolor="#f5d0b5"] ;
129 -> 130 ;
131 [label=<feature_18 &le; 4.635<br/>friedman_mse = 0.022<br/>samples = 44<br/>value = -0.477>, fillcolor="#f5cfb4"] ;
130 -> 131 ;
132 [label=<friedman_mse = -0.0<br/>samples = 34<br/>value = -2.0>, fillcolor="#ffffff"] ;
131 -> 132 ;
133 [label=<friedman_mse = 0.09<br/>samples = 10<br/>value = -1.6>, fillcolor="#fcf2eb"] ;
131 -> 133 ;
134 [label=<feature_11 &le; 12.55<br/>friedman_mse = 0.0<br/>samples = 285<br/>value = -0.5>, fillcolor="#f5d0b5"] ;
130 -> 134 ;
135 [label=<friedman_mse = -0.0<br/>samples = 129<br/>value = -2.0>, fillcolor="#ffffff"] ;
134 -> 135 ;
136 [label=<friedman_mse = 0.0<br/>samples = 156<br/>value = -2.0>, fillcolor="#ffffff"] ;
134 -> 136 ;
137 [label=<feature_3 &le; 60.266<br/>friedman_mse = 0.049<br/>samples = 249<br/>value = -0.448>, fillcolor="#f5ceb2"] ;
129 -> 137 ;
138 [label=<friedman_mse = -0.0<br/>samples = 101<br/>value = -2.0>, fillcolor="#ffffff"] ;
137 -> 138 ;
139 [label=<feature_2 &le; 95.11<br/>friedman_mse = 0.08<br/>samples = 148<br/>value = -0.412>, fillcolor="#f5cdb0"] ;
137 -> 139 ;
140 [label=<friedman_mse = 0.237<br/>samples = 13<br/>value = 0.462>, fillcolor="#efb185"] ;
139 -> 140 ;
141 [label=<friedman_mse = 0.036<br/>samples = 135<br/>value = -1.852>, fillcolor="#fefaf8"] ;
139 -> 141 ;
142 [label=<feature_5 &le; 8.182<br/>friedman_mse = 0.061<br/>samples = 1548<br/>value = -0.435>, fillcolor="#f5ceb2"] ;
128 -> 142 ;
143 [label=<feature_19 &le; 14.061<br/>friedman_mse = 0.082<br/>samples = 1066<br/>value = -0.41>, fillcolor="#f5cdb0"] ;
142 -> 143 ;
144 [label=<feature_17 &le; 63.662<br/>friedman_mse = 0.026<br/>samples = 375<br/>value = -0.473>, fillcolor="#f5cfb3"] ;
143 -> 144 ;
145 [label=<friedman_mse = 0.008<br/>samples = 258<br/>value = -1.969>, fillcolor="#fffefd"] ;
144 -> 145 ;
146 [label=<friedman_mse = 0.064<br/>samples = 117<br/>value = -1.727>, fillcolor="#fdf6f1"] ;
144 -> 146 ;
147 [label=<feature_9 &le; 398.597<br/>friedman_mse = 0.109<br/>samples = 691<br/>value = -0.376>, fillcolor="#f4ccaf"] ;
143 -> 147 ;
148 [label=<friedman_mse = 0.103<br/>samples = 679<br/>value = -1.535>, fillcolor="#fcf0e8"] ;
147 -> 148 ;
149 [label=<friedman_mse = 0.243<br/>samples = 12<br/>value = 0.333>, fillcolor="#f0b68c"] ;
147 -> 149 ;
150 [label=<feature_14 &le; 28.5<br/>friedman_mse = 0.01<br/>samples = 482<br/>value = -0.49>, fillcolor="#f5cfb4"] ;
142 -> 150 ;
151 [label=<feature_0 &le; 1.5<br/>friedman_mse = 0.008<br/>samples = 467<br/>value = -0.491>, fillcolor="#f5cfb4"] ;
150 -> 151 ;
152 [label=<friedman_mse = 0.029<br/>samples = 68<br/>value = -1.882>, fillcolor="#fefbf9"] ;
151 -> 152 ;
153 [label=<friedman_mse = 0.005<br/>samples = 399<br/>value = -1.98>, fillcolor="#fffefe"] ;
151 -> 153 ;
154 [label=<friedman_mse = 0.062<br/>samples = 15<br/>value = -1.733>, fillcolor="#fdf7f2"] ;
150 -> 154 ;
155 [label=<feature_11 &le; 12.601<br/>friedman_mse = 0.148<br/>samples = 1621<br/>value = -0.32>, fillcolor="#f4caac"] ;
127 -> 155 ;
156 [label=<feature_15 &le; 14.875<br/>friedman_mse = 0.061<br/>samples = 843<br/>value = -0.435>, fillcolor="#f5ceb2"] ;
155 -> 156 ;
157 [label=<feature_24 &le; 1.645<br/>friedman_mse = 0.126<br/>samples = 115<br/>value = -0.352>, fillcolor="#f4cbad"] ;
156 -> 157 ;
158 [label=<feature_10 &le; 9.322<br/>friedman_mse = 0.095<br/>samples = 94<br/>value = -0.394>, fillcolor="#f5ccaf"] ;
157 -> 158 ;
159 [label=<friedman_mse = 0.069<br/>samples = 80<br/>value = -1.7>, fillcolor="#fdf6f0"] ;
158 -> 159 ;
160 [label=<friedman_mse = 0.204<br/>samples = 14<br/>value = -0.857>, fillcolor="#f8dbc6"] ;
158 -> 160 ;
161 [label=<feature_9 &le; 232.0<br/>friedman_mse = 0.222<br/>samples = 21<br/>value = -0.167>, fillcolor="#f3c5a4"] ;
157 -> 161 ;
162 [label=<friedman_mse = 0.24<br/>samples = 10<br/>value = -0.4>, fillcolor="#f5cdb0"] ;
161 -> 162 ;
163 [label=<friedman_mse = 0.198<br/>samples = 11<br/>value = -0.909>, fillcolor="#f8ddc9"] ;
161 -> 163 ;
164 [label=<feature_16 &le; 5.133<br/>friedman_mse = 0.049<br/>samples = 728<br/>value = -0.448>, fillcolor="#f5ceb2"] ;
156 -> 164 ;
165 [label=<feature_21 &le; 10.234<br/>friedman_mse = 0.077<br/>samples = 443<br/>value = -0.416>, fillcolor="#f5cdb1"] ;
164 -> 165 ;
166 [label=<friedman_mse = 0.169<br/>samples = 79<br/>value = -1.139>, fillcolor="#f9e4d4"] ;
165 -> 166 ;
167 [label=<friedman_mse = 0.052<br/>samples = 364<br/>value = -1.78>, fillcolor="#fef8f4"] ;
165 -> 167 ;
168 [label=<feature_23 &le; 1.695<br/>friedman_mse = 0.003<br/>samples = 285<br/>value = -0.497>, fillcolor="#f5d0b5"] ;
164 -> 168 ;
169 [label=<friedman_mse = 0.0<br/>samples = 158<br/>value = -2.0>, fillcolor="#ffffff"] ;
168 -> 169 ;
170 [label=<friedman_mse = 0.008<br/>samples = 127<br/>value = -1.969>, fillcolor="#fffefd"] ;
168 -> 170 ;
171 [label=<feature_2 &le; 146.089<br/>friedman_mse = 0.212<br/>samples = 778<br/>value = -0.195>, fillcolor="#f3c6a6"] ;
155 -> 171 ;
172 [label=<feature_13 &le; 111.0<br/>friedman_mse = 0.182<br/>samples = 668<br/>value = -0.26>, fillcolor="#f4c8a9"] ;
171 -> 172 ;
173 [label=<feature_11 &le; 12.692<br/>friedman_mse = 0.173<br/>samples = 647<br/>value = -0.277>, fillcolor="#f4c9aa"] ;
172 -> 173 ;
174 [label=<friedman_mse = -0.0<br/>samples = 16<br/>value = 2.0>, fillcolor="#e58139"] ;
173 -> 174 ;
175 [label=<friedman_mse = 0.162<br/>samples = 631<br/>value = -1.189>, fillcolor="#fae5d7"] ;
173 -> 175 ;
176 [label=<feature_2 &le; 123.42<br/>friedman_mse = 0.181<br/>samples = 21<br/>value = 0.262>, fillcolor="#f0b88f"] ;
172 -> 176 ;
177 [label=<friedman_mse = 0.09<br/>samples = 10<br/>value = 1.6>, fillcolor="#e88e4d"] ;
176 -> 177 ;
178 [label=<friedman_mse = 0.231<br/>samples = 11<br/>value = 0.545>, fillcolor="#eeaf81"] ;
176 -> 178 ;
179 [label=<feature_3 &le; 77.544<br/>friedman_mse = 0.21<br/>samples = 110<br/>value = 0.2>, fillcolor="#f1ba92"] ;
171 -> 179 ;
180 [label=<feature_22 &le; 296.299<br/>friedman_mse = 0.145<br/>samples = 74<br/>value = 0.324>, fillcolor="#f0b68c"] ;
179 -> 180 ;
181 [label=<friedman_mse = 0.24<br/>samples = 10<br/>value = -0.4>, fillcolor="#f5cdb0"] ;
180 -> 181 ;
182 [label=<friedman_mse = 0.097<br/>samples = 64<br/>value = 1.562>, fillcolor="#e88f4f"] ;
180 -> 182 ;
183 [label=<feature_22 &le; 398.395<br/>friedman_mse = 0.247<br/>samples = 36<br/>value = -0.056>, fillcolor="#f2c29f"] ;
179 -> 183 ;
184 [label=<friedman_mse = 0.244<br/>samples = 26<br/>value = 0.308>, fillcolor="#f0b68d"] ;
183 -> 184 ;
185 [label=<friedman_mse = 0.09<br/>samples = 10<br/>value = -1.6>, fillcolor="#fcf2eb"] ;
183 -> 185 ;
186 [label=<feature_13 &le; 94.026<br/>friedman_mse = 0.211<br/>samples = 572<br/>value = -0.198>, fillcolor="#f3c6a6"] ;
126 -> 186 ;
187 [label=<feature_3 &le; 68.746<br/>friedman_mse = 0.187<br/>samples = 459<br/>value = -0.252>, fillcolor="#f4c8a8"] ;
186 -> 187 ;
188 [label=<feature_25 &le; 4.95<br/>friedman_mse = 0.239<br/>samples = 212<br/>value = -0.104>, fillcolor="#f3c3a1"] ;
187 -> 188 ;
189 [label=<friedman_mse = -0.0<br/>samples = 36<br/>value = -2.0>, fillcolor="#ffffff"] ;
188 -> 189 ;
190 [label=<feature_23 &le; 1.092<br/>friedman_mse = 0.249<br/>samples = 176<br/>value = -0.023>, fillcolor="#f2c19d"] ;
188 -> 190 ;
191 [label=<feature_21 &le; 16.245<br/>friedman_mse = 0.137<br/>samples = 55<br/>value = -0.336>, fillcolor="#f4cbad"] ;
190 -> 191 ;
192 [label=<friedman_mse = 0.084<br/>samples = 43<br/>value = -1.628>, fillcolor="#fdf3ed"] ;
191 -> 192 ;
193 [label=<friedman_mse = 0.243<br/>samples = 12<br/>value = -0.333>, fillcolor="#f4caac"] ;
191 -> 193 ;
194 [label=<feature_9 &le; 263.935<br/>friedman_mse = 0.236<br/>samples = 121<br/>value = 0.12>, fillcolor="#f1bc96"] ;
190 -> 194 ;
195 [label=<friedman_mse = 0.187<br/>samples = 96<br/>value = 1.0>, fillcolor="#eca06b"] ;
194 -> 195 ;
196 [label=<friedman_mse = 0.106<br/>samples = 25<br/>value = -1.52>, fillcolor="#fcf0e7"] ;
194 -> 196 ;
197 [label=<feature_12 &le; 44.971<br/>friedman_mse = 0.107<br/>samples = 247<br/>value = -0.379>, fillcolor="#f4ccaf"] ;
187 -> 197 ;
198 [label=<feature_10 &le; 8.093<br/>friedman_mse = 0.144<br/>samples = 149<br/>value = -0.326>, fillcolor="#f4caac"] ;
197 -> 198 ;
199 [label=<feature_12 &le; 43.071<br/>friedman_mse = 0.204<br/>samples = 84<br/>value = -0.214>, fillcolor="#f3c7a7"] ;
198 -> 199 ;
200 [label=<friedman_mse = 0.158<br/>samples = 56<br/>value = -1.214>, fillcolor="#fae6d8"] ;
199 -> 200 ;
201 [label=<friedman_mse = 0.249<br/>samples = 28<br/>value = -0.143>, fillcolor="#f3c4a3"] ;
199 -> 201 ;
202 [label=<feature_18 &le; 4.092<br/>friedman_mse = 0.03<br/>samples = 65<br/>value = -0.469>, fillcolor="#f5cfb3"] ;
198 -> 202 ;
203 [label=<friedman_mse = 0.083<br/>samples = 11<br/>value = -1.636>, fillcolor="#fdf4ed"] ;
202 -> 203 ;
204 [label=<friedman_mse = 0.018<br/>samples = 54<br/>value = -1.926>, fillcolor="#fffdfb"] ;
202 -> 204 ;
205 [label=<feature_5 &le; 6.499<br/>friedman_mse = 0.039<br/>samples = 98<br/>value = -0.459>, fillcolor="#f5ceb3"] ;
197 -> 205 ;
206 [label=<feature_23 &le; 1.553<br/>friedman_mse = 0.076<br/>samples = 48<br/>value = -0.417>, fillcolor="#f5cdb1"] ;
205 -> 206 ;
207 [label=<friedman_mse = -0.0<br/>samples = 35<br/>value = -2.0>, fillcolor="#ffffff"] ;
206 -> 207 ;
208 [label=<friedman_mse = 0.213<br/>samples = 13<br/>value = -0.769>, fillcolor="#f7d8c2"] ;
206 -> 208 ;
209 [label=<friedman_mse = -0.0<br/>samples = 50<br/>value = -2.0>, fillcolor="#ffffff"] ;
205 -> 209 ;
210 [label=<feature_4 &le; 61.267<br/>friedman_mse = 0.25<br/>samples = 113<br/>value = 0.022>, fillcolor="#f2bf9b"] ;
186 -> 210 ;
211 [label=<friedman_mse = 0.152<br/>samples = 16<br/>value = -1.25>, fillcolor="#fae7da"] ;
210 -> 211 ;
212 [label=<feature_11 &le; 12.448<br/>friedman_mse = 0.244<br/>samples = 97<br/>value = 0.077>, fillcolor="#f1be98"] ;
210 -> 212 ;
213 [label=<feature_9 &le; 248.506<br/>friedman_mse = 0.149<br/>samples = 22<br/>value = -0.318>, fillcolor="#f4caac"] ;
212 -> 213 ;
214 [label=<friedman_mse = 0.24<br/>samples = 10<br/>value = -0.4>, fillcolor="#f5cdb0"] ;
213 -> 214 ;
215 [label=<friedman_mse = 0.0<br/>samples = 12<br/>value = -2.0>, fillcolor="#ffffff"] ;
213 -> 215 ;
216 [label=<feature_25 &le; 5.383<br/>friedman_mse = 0.213<br/>samples = 75<br/>value = 0.193>, fillcolor="#f1ba92"] ;
212 -> 216 ;
217 [label=<feature_1 &le; 34.5<br/>friedman_mse = 0.178<br/>samples = 65<br/>value = 0.269>, fillcolor="#f0b88f"] ;
216 -> 217 ;
218 [label=<friedman_mse = 0.198<br/>samples = 11<br/>value = -0.909>, fillcolor="#f8ddc9"] ;
217 -> 218 ;
219 [label=<friedman_mse = 0.113<br/>samples = 54<br/>value = 1.481>, fillcolor="#e89153"] ;
217 -> 219 ;
220 [label=<friedman_mse = 0.16<br/>samples = 10<br/>value = -1.2>, fillcolor="#fae6d7"] ;
216 -> 220 ;
221 [label=<feature_10 &le; 9.598<br/>friedman_mse = 0.228<br/>samples = 9032<br/>value = -0.147>, fillcolor="#f3c5a3"] ;
125 -> 221 ;
222 [label=<feature_10 &le; 7.301<br/>friedman_mse = 0.232<br/>samples = 8603<br/>value = -0.133>, fillcolor="#f3c4a3"] ;
221 -> 222 ;
223 [label=<feature_3 &le; 69.893<br/>friedman_mse = 0.193<br/>samples = 1346<br/>value = -0.239>, fillcolor="#f4c8a8"] ;
222 -> 223 ;
224 [label=<feature_6 &le; 0.4<br/>friedman_mse = 0.226<br/>samples = 642<br/>value = -0.154>, fillcolor="#f3c5a4"] ;
223 -> 224 ;
225 [label=<feature_9 &le; 222.475<br/>friedman_mse = 0.129<br/>samples = 151<br/>value = -0.348>, fillcolor="#f4cbad"] ;
224 -> 225 ;
226 [label=<feature_17 &le; 78.659<br/>friedman_mse = 0.249<br/>samples = 30<br/>value = -0.033>, fillcolor="#f2c19e"] ;
225 -> 226 ;
227 [label=<friedman_mse = 0.09<br/>samples = 10<br/>value = -1.6>, fillcolor="#fcf2eb"] ;
226 -> 227 ;
228 [label=<friedman_mse = 0.227<br/>samples = 20<br/>value = 0.6>, fillcolor="#eead7e"] ;
226 -> 228 ;
229 [label=<feature_5 &le; 8.13<br/>friedman_mse = 0.069<br/>samples = 121<br/>value = -0.426>, fillcolor="#f5cdb1"] ;
225 -> 229 ;
230 [label=<friedman_mse = 0.034<br/>samples = 86<br/>value = -1.861>, fillcolor="#fefbf8"] ;
229 -> 230 ;
231 [label=<friedman_mse = 0.142<br/>samples = 35<br/>value = -1.314>, fillcolor="#fbe9dd"] ;
229 -> 231 ;
232 [label=<feature_21 &le; 15.351<br/>friedman_mse = 0.241<br/>samples = 491<br/>value = -0.095>, fillcolor="#f3c3a1"] ;
224 -> 232 ;
233 [label=<feature_16 &le; 4.259<br/>friedman_mse = 0.247<br/>samples = 425<br/>value = -0.055>, fillcolor="#f2c29f"] ;
232 -> 233 ;
234 [label=<friedman_mse = 0.231<br/>samples = 166<br/>value = 0.554>, fillcolor="#eeaf81"] ;
233 -> 234 ;
235 [label=<friedman_mse = 0.218<br/>samples = 259<br/>value = -0.718>, fillcolor="#f7d7c0"] ;
233 -> 235 ;
236 [label=<feature_12 &le; 40.879<br/>friedman_mse = 0.129<br/>samples = 66<br/>value = -0.348>, fillcolor="#f4cbad"] ;
232 -> 236 ;
237 [label=<friedman_mse = 0.234<br/>samples = 16<br/>value = 0.5>, fillcolor="#efb083"] ;
236 -> 237 ;
238 [label=<friedman_mse = -0.0<br/>samples = 50<br/>value = -2.0>, fillcolor="#ffffff"] ;
236 -> 238 ;
239 [label=<feature_4 &le; 67.748<br/>friedman_mse = 0.15<br/>samples = 704<br/>value = -0.317>, fillcolor="#f4caac"] ;
223 -> 239 ;
240 [label=<feature_11 &le; 12.525<br/>friedman_mse = 0.013<br/>samples = 147<br/>value = -0.486>, fillcolor="#f5cfb4"] ;
239 -> 240 ;
241 [label=<friedman_mse = -0.0<br/>samples = 69<br/>value = -2.0>, fillcolor="#ffffff"] ;
240 -> 241 ;
242 [label=<feature_17 &le; 69.825<br/>friedman_mse = 0.025<br/>samples = 78<br/>value = -0.474>, fillcolor="#f5cfb3"] ;
240 -> 242 ;
243 [label=<friedman_mse = -0.0<br/>samples = 43<br/>value = -2.0>, fillcolor="#ffffff"] ;
242 -> 243 ;
244 [label=<friedman_mse = 0.054<br/>samples = 35<br/>value = -1.771>, fillcolor="#fef8f4"] ;
242 -> 244 ;
245 [label=<feature_25 &le; 5.4<br/>friedman_mse = 0.176<br/>samples = 557<br/>value = -0.272>, fillcolor="#f4c9a9"] ;
239 -> 245 ;
246 [label=<feature_8 &le; 34.782<br/>friedman_mse = 0.201<br/>samples = 452<br/>value = -0.221>, fillcolor="#f3c7a7"] ;
245 -> 246 ;
247 [label=<friedman_mse = 0.224<br/>samples = 355<br/>value = -0.648>, fillcolor="#f6d4bc"] ;
246 -> 247 ;
248 [label=<friedman_mse = 0.058<br/>samples = 97<br/>value = -1.753>, fillcolor="#fdf7f3"] ;
246 -> 248 ;
249 [label=<feature_18 &le; 5.382<br/>friedman_mse = 0.009<br/>samples = 105<br/>value = -0.49>, fillcolor="#f5cfb4"] ;
245 -> 249 ;
250 [label=<friedman_mse = -0.0<br/>samples = 62<br/>value = -2.0>, fillcolor="#ffffff"] ;
249 -> 250 ;
251 [label=<friedman_mse = 0.023<br/>samples = 43<br/>value = -1.907>, fillcolor="#fefcfa"] ;
249 -> 251 ;
252 [label=<feature_20 &le; 126.0<br/>friedman_mse = 0.237<br/>samples = 7257<br/>value = -0.113>, fillcolor="#f3c4a2"] ;
222 -> 252 ;
253 [label=<feature_25 &le; 5.4<br/>friedman_mse = 0.206<br/>samples = 3020<br/>value = -0.21>, fillcolor="#f3c7a6"] ;
252 -> 253 ;
254 [label=<feature_1 &le; 51.5<br/>friedman_mse = 0.224<br/>samples = 2532<br/>value = -0.161>, fillcolor="#f3c5a4"] ;
253 -> 254 ;
255 [label=<feature_25 &le; 5.3<br/>friedman_mse = 0.078<br/>samples = 1463<br/>value = -0.415>, fillcolor="#f5cdb1"] ;
254 -> 255 ;
256 [label=<friedman_mse = 0.062<br/>samples = 1435<br/>value = -1.732>, fillcolor="#fdf7f2"] ;
255 -> 256 ;
257 [label=<friedman_mse = -0.0<br/>samples = 28<br/>value = 2.0>, fillcolor="#e58139"] ;
255 -> 257 ;
258 [label=<feature_9 &le; 217.569<br/>friedman_mse = 0.215<br/>samples = 1069<br/>value = 0.187>, fillcolor="#f1ba93"] ;
254 -> 258 ;
259 [label=<friedman_mse = 0.162<br/>samples = 651<br/>value = 1.189>, fillcolor="#ea9b61"] ;
258 -> 259 ;
260 [label=<friedman_mse = 0.25<br/>samples = 418<br/>value = 0.057>, fillcolor="#f2be99"] ;
258 -> 260 ;
261 [label=<feature_9 &le; 214.509<br/>friedman_mse = 0.036<br/>samples = 488<br/>value = -0.463>, fillcolor="#f5cfb3"] ;
253 -> 261 ;
262 [label=<feature_10 &le; 8.148<br/>friedman_mse = 0.083<br/>samples = 143<br/>value = -0.409>, fillcolor="#f5cdb0"] ;
261 -> 262 ;
263 [label=<friedman_mse = 0.158<br/>samples = 61<br/>value = -1.213>, fillcolor="#fae6d8"] ;
262 -> 263 ;
264 [label=<friedman_mse = 0.012<br/>samples = 82<br/>value = -1.951>, fillcolor="#fffdfd"] ;
262 -> 264 ;
265 [label=<feature_9 &le; 359.5<br/>friedman_mse = 0.014<br/>samples = 345<br/>value = -0.486>, fillcolor="#f5cfb4"] ;
261 -> 265 ;
266 [label=<friedman_mse = 0.009<br/>samples = 324<br/>value = -1.963>, fillcolor="#fffefd"] ;
265 -> 266 ;
267 [label=<friedman_mse = 0.086<br/>samples = 21<br/>value = -1.619>, fillcolor="#fdf3ec"] ;
265 -> 267 ;
268 [label=<feature_15 &le; 38.948<br/>friedman_mse = 0.248<br/>samples = 4237<br/>value = -0.045>, fillcolor="#f2c19e"] ;
252 -> 268 ;
269 [label=<feature_26 &le; 1.5<br/>friedman_mse = 0.249<br/>samples = 4081<br/>value = -0.03>, fillcolor="#f2c19d"] ;
268 -> 269 ;
270 [label=<feature_15 &le; 12.593<br/>friedman_mse = 0.058<br/>samples = 481<br/>value = 0.438>, fillcolor="#efb286"] ;
269 -> 270 ;
271 [label=<friedman_mse = 0.24<br/>samples = 10<br/>value = 0.4>, fillcolor="#efb388"] ;
270 -> 271 ;
272 [label=<friedman_mse = 0.052<br/>samples = 471<br/>value = 1.779>, fillcolor="#e68844"] ;
270 -> 272 ;
273 [label=<feature_23 &le; 1.027<br/>friedman_mse = 0.241<br/>samples = 3600<br/>value = -0.093>, fillcolor="#f3c3a1"] ;
269 -> 273 ;
274 [label=<friedman_mse = 0.18<br/>samples = 967<br/>value = -1.057>, fillcolor="#f9e1d0"] ;
273 -> 274 ;
275 [label=<friedman_mse = 0.249<br/>samples = 2633<br/>value = -0.118>, fillcolor="#f3c4a2"] ;
273 -> 275 ;
276 [label=<feature_4 &le; 97.949<br/>friedman_mse = 0.066<br/>samples = 156<br/>value = -0.429>, fillcolor="#f5ceb1"] ;
268 -> 276 ;
277 [label=<feature_9 &le; 201.471<br/>friedman_mse = 0.087<br/>samples = 115<br/>value = -0.404>, fillcolor="#f5cdb0"] ;
276 -> 277 ;
278 [label=<friedman_mse = 0.204<br/>samples = 21<br/>value = -0.857>, fillcolor="#f8dbc6"] ;
277 -> 278 ;
279 [label=<friedman_mse = 0.05<br/>samples = 94<br/>value = -1.787>, fillcolor="#fef8f4"] ;
277 -> 279 ;
280 [label=<friedman_mse = -0.0<br/>samples = 41<br/>value = -2.0>, fillcolor="#ffffff"] ;
276 -> 280 ;
281 [label=<feature_20 &le; 151.485<br/>friedman_mse = 0.063<br/>samples = 429<br/>value = -0.432>, fillcolor="#f5ceb1"] ;
221 -> 281 ;
282 [label=<feature_8 &le; 33.437<br/>friedman_mse = 0.034<br/>samples = 345<br/>value = -0.465>, fillcolor="#f5cfb3"] ;
281 -> 282 ;
283 [label=<friedman_mse = -0.0<br/>samples = 98<br/>value = -2.0>, fillcolor="#ffffff"] ;
282 -> 283 ;
284 [label=<feature_1 &le; 72.5<br/>friedman_mse = 0.046<br/>samples = 247<br/>value = -0.451>, fillcolor="#f5ceb2"] ;
282 -> 284 ;
285 [label=<feature_1 &le; 54.5<br/>friedman_mse = 0.026<br/>samples = 229<br/>value = -0.474>, fillcolor="#f5cfb3"] ;
284 -> 285 ;
286 [label=<feature_22 &le; 359.85<br/>friedman_mse = 0.0<br/>samples = 180<br/>value = -0.5>, fillcolor="#f5d0b5"] ;
285 -> 286 ;
287 [label=<friedman_mse = -0.0<br/>samples = 129<br/>value = -2.0>, fillcolor="#ffffff"] ;
286 -> 287 ;
288 [label=<friedman_mse = 0.0<br/>samples = 51<br/>value = -2.0>, fillcolor="#ffffff"] ;
286 -> 288 ;
289 [label=<feature_19 &le; 16.787<br/>friedman_mse = 0.107<br/>samples = 49<br/>value = -0.378>, fillcolor="#f4ccaf"] ;
285 -> 289 ;
290 [label=<friedman_mse = 0.188<br/>samples = 20<br/>value = -1.0>, fillcolor="#f8dfcd"] ;
289 -> 290 ;
291 [label=<friedman_mse = 0.033<br/>samples = 29<br/>value = -1.862>, fillcolor="#fefbf8"] ;
289 -> 291 ;
292 [label=<friedman_mse = 0.222<br/>samples = 18<br/>value = -0.667>, fillcolor="#f6d5bd"] ;
284 -> 292 ;
293 [label=<feature_18 &le; 5.308<br/>friedman_mse = 0.161<br/>samples = 84<br/>value = -0.298>, fillcolor="#f4c9ab"] ;
281 -> 293 ;
294 [label=<feature_1 &le; 62.5<br/>friedman_mse = 0.218<br/>samples = 50<br/>value = -0.18>, fillcolor="#f3c6a5"] ;
293 -> 294 ;
295 [label=<feature_1 &le; 36.0<br/>friedman_mse = 0.087<br/>samples = 31<br/>value = -0.403>, fillcolor="#f5cdb0"] ;
294 -> 295 ;
296 [label=<friedman_mse = 0.0<br/>samples = 14<br/>value = -2.0>, fillcolor="#ffffff"] ;
295 -> 296 ;
297 [label=<friedman_mse = 0.145<br/>samples = 17<br/>value = -1.294>, fillcolor="#fae9dc"] ;
295 -> 297 ;
298 [label=<friedman_mse = 0.216<br/>samples = 19<br/>value = 0.737>, fillcolor="#eda978"] ;
294 -> 298 ;
299 [label=<feature_7 &le; 4.89<br/>friedman_mse = 0.029<br/>samples = 34<br/>value = -0.471>, fillcolor="#f5cfb3"] ;
293 -> 299 ;
300 [label=<friedman_mse = 0.062<br/>samples = 15<br/>value = -1.733>, fillcolor="#fdf7f2"] ;
299 -> 300 ;
301 [label=<friedman_mse = -0.0<br/>samples = 19<br/>value = -2.0>, fillcolor="#ffffff"] ;
299 -> 301 ;
302 [label=<feature_11 &le; 12.2<br/>friedman_mse = 0.233<br/>samples = 33190<br/>value = 0.129>, fillcolor="#f1bc96"] ;
0 -> 302 [labeldistance=2.5, labelangle=-45, headlabel="False"] ;
303 [label=<feature_19 &le; 15.03<br/>friedman_mse = 0.229<br/>samples = 2839<br/>value = -0.146>, fillcolor="#f3c5a3"] ;
302 -> 303 ;
304 [label=<feature_2 &le; 132.052<br/>friedman_mse = 0.139<br/>samples = 466<br/>value = -0.333>, fillcolor="#f4caac"] ;
303 -> 304 ;
305 [label=<feature_9 &le; 190.5<br/>friedman_mse = 0.095<br/>samples = 340<br/>value = -0.394>, fillcolor="#f5ccb0"] ;
304 -> 305 ;
306 [label=<feature_4 &le; 72.45<br/>friedman_mse = 0.231<br/>samples = 77<br/>value = -0.136>, fillcolor="#f3c4a3"] ;
305 -> 306 ;
307 [label=<feature_16 &le; 4.344<br/>friedman_mse = 0.099<br/>samples = 36<br/>value = -0.389>, fillcolor="#f5ccaf"] ;
306 -> 307 ;
308 [label=<friedman_mse = 0.204<br/>samples = 14<br/>value = -0.857>, fillcolor="#f8dbc6"] ;
307 -> 308 ;
309 [label=<friedman_mse = -0.0<br/>samples = 22<br/>value = -2.0>, fillcolor="#ffffff"] ;
307 -> 309 ;
310 [label=<feature_7 &le; 4.825<br/>friedman_mse = 0.243<br/>samples = 41<br/>value = 0.085>, fillcolor="#f1bd98"] ;
306 -> 310 ;
311 [label=<feature_16 &le; 4.075<br/>friedman_mse = 0.249<br/>samples = 28<br/>value = -0.036>, fillcolor="#f2c19e"] ;
310 -> 311 ;
312 [label=<friedman_mse = 0.18<br/>samples = 17<br/>value = 1.059>, fillcolor="#eb9f68"] ;
311 -> 312 ;
313 [label=<friedman_mse = 0.0<br/>samples = 11<br/>value = -2.0>, fillcolor="#ffffff"] ;
311 -> 313 ;
314 [label=<friedman_mse = 0.13<br/>samples = 13<br/>value = 1.385>, fillcolor="#e99457"] ;
310 -> 314 ;
315 [label=<feature_20 &le; 111.5<br/>friedman_mse = 0.029<br/>samples = 263<br/>value = -0.47>, fillcolor="#f5cfb3"] ;
305 -> 315 ;
316 [label=<friedman_mse = -0.0<br/>samples = 58<br/>value = -2.0>, fillcolor="#ffffff"] ;
315 -> 316 ;
317 [label=<feature_15 &le; 19.5<br/>friedman_mse = 0.038<br/>samples = 205<br/>value = -0.461>, fillcolor="#f5cfb3"] ;
315 -> 317 ;
318 [label=<feature_24 &le; 1.568<br/>friedman_mse = 0.055<br/>samples = 119<br/>value = -0.441>, fillcolor="#f5ceb2"] ;
317 -> 318 ;
319 [label=<feature_6 &le; 0.834<br/>friedman_mse = 0.024<br/>samples = 83<br/>value = -0.476>, fillcolor="#f5cfb4"] ;
318 -> 319 ;
320 [label=<friedman_mse = -0.0<br/>samples = 61<br/>value = -2.0>, fillcolor="#ffffff"] ;
319 -> 320 ;
321 [label=<friedman_mse = 0.083<br/>samples = 22<br/>value = -1.636>, fillcolor="#fdf4ed"] ;
319 -> 321 ;
322 [label=<feature_9 &le; 290.0<br/>friedman_mse = 0.12<br/>samples = 36<br/>value = -0.361>, fillcolor="#f4cbae"] ;
318 -> 322 ;
323 [label=<friedman_mse = 0.037<br/>samples = 26<br/>value = -1.846>, fillcolor="#fefaf7"] ;
322 -> 323 ;
324 [label=<friedman_mse = 0.24<br/>samples = 10<br/>value = -0.4>, fillcolor="#f5cdb0"] ;
322 -> 324 ;
325 [label=<feature_6 &le; 0.35<br/>friedman_mse = 0.011<br/>samples = 86<br/>value = -0.488>, fillcolor="#f5cfb4"] ;
317 -> 325 ;
326 [label=<friedman_mse = 0.066<br/>samples = 14<br/>value = -1.714>, fillcolor="#fdf6f1"] ;
325 -> 326 ;
327 [label=<friedman_mse = -0.0<br/>samples = 72<br/>value = -2.0>, fillcolor="#ffffff"] ;
325 -> 327 ;
328 [label=<feature_1 &le; 61.5<br/>friedman_mse = 0.222<br/>samples = 126<br/>value = -0.167>, fillcolor="#f3c5a4"] ;
304 -> 328 ;
329 [label=<friedman_mse = -0.0<br/>samples = 31<br/>value = -2.0>, fillcolor="#ffffff"] ;
328 -> 329 ;
330 [label=<feature_25 &le; 5.506<br/>friedman_mse = 0.247<br/>samples = 95<br/>value = -0.058>, fillcolor="#f2c29f"] ;
328 -> 330 ;
331 [label=<friedman_mse = 0.139<br/>samples = 18<br/>value = -1.333>, fillcolor="#fbeade"] ;
330 -> 331 ;
332 [label=<feature_0 &le; 1.5<br/>friedman_mse = 0.25<br/>samples = 77<br/>value = 0.006>, fillcolor="#f2c09c"] ;
330 -> 332 ;
333 [label=<feature_17 &le; 110.384<br/>friedman_mse = 0.185<br/>samples = 45<br/>value = 0.256>, fillcolor="#f0b88f"] ;
332 -> 333 ;
334 [label=<feature_25 &le; 5.772<br/>friedman_mse = 0.235<br/>samples = 29<br/>value = 0.121>, fillcolor="#f1bc96"] ;
333 -> 334 ;
335 [label=<friedman_mse = 0.194<br/>samples = 19<br/>value = 0.947>, fillcolor="#eca26d"] ;
334 -> 335 ;
336 [label=<friedman_mse = 0.24<br/>samples = 10<br/>value = -0.4>, fillcolor="#f5cdb0"] ;
334 -> 336 ;
337 [label=<friedman_mse = 0.0<br/>samples = 16<br/>value = 2.0>, fillcolor="#e58139"] ;
333 -> 337 ;
338 [label=<feature_15 &le; 16.0<br/>friedman_mse = 0.132<br/>samples = 32<br/>value = -0.344>, fillcolor="#f4cbad"] ;
332 -> 338 ;
339 [label=<friedman_mse = 0.24<br/>samples = 10<br/>value = -0.4>, fillcolor="#f5cdb0"] ;
338 -> 339 ;
340 [label=<feature_9 &le; 215.0<br/>friedman_mse = 0.043<br/>samples = 22<br/>value = -0.455>, fillcolor="#f5ceb2"] ;
338 -> 340 ;
341 [label=<friedman_mse = 0.09<br/>samples = 10<br/>value = -1.6>, fillcolor="#fcf2eb"] ;
340 -> 341 ;
342 [label=<friedman_mse = -0.0<br/>samples = 12<br/>value = -2.0>, fillcolor="#ffffff"] ;
340 -> 342 ;
343 [label=<feature_20 &le; 119.039<br/>friedman_mse = 0.238<br/>samples = 2373<br/>value = -0.11>, fillcolor="#f3c3a1"] ;
303 -> 343 ;
344 [label=<feature_18 &le; 6.833<br/>friedman_mse = 0.179<br/>samples = 633<br/>value = -0.266>, fillcolor="#f4c8a9"] ;
343 -> 344 ;
345 [label=<feature_0 &le; 1.5<br/>friedman_mse = 0.172<br/>samples = 614<br/>value = -0.28>, fillcolor="#f4c9aa"] ;
344 -> 345 ;
346 [label=<feature_1 &le; 59.5<br/>friedman_mse = 0.199<br/>samples = 426<br/>value = -0.225>, fillcolor="#f3c7a7"] ;
345 -> 346 ;
347 [label=<feature_8 &le; 35.82<br/>friedman_mse = 0.069<br/>samples = 243<br/>value = -0.426>, fillcolor="#f5cdb1"] ;
346 -> 347 ;
348 [label=<feature_1 &le; 48.5<br/>friedman_mse = 0.053<br/>samples = 231<br/>value = -0.444>, fillcolor="#f5ceb2"] ;
347 -> 348 ;
349 [label=<friedman_mse = 0.025<br/>samples = 159<br/>value = -1.899>, fillcolor="#fefcfa"] ;
348 -> 349 ;
350 [label=<friedman_mse = 0.109<br/>samples = 72<br/>value = -1.5>, fillcolor="#fcefe6"] ;
348 -> 350 ;
351 [label=<friedman_mse = 0.243<br/>samples = 12<br/>value = -0.333>, fillcolor="#f4caac"] ;
347 -> 351 ;
352 [label=<feature_25 &le; 5.676<br/>friedman_mse = 0.248<br/>samples = 183<br/>value = 0.041>, fillcolor="#f2bf9a"] ;
346 -> 352 ;
353 [label=<feature_2 &le; 120.422<br/>friedman_mse = 0.204<br/>samples = 70<br/>value = 0.214>, fillcolor="#f1b991"] ;
352 -> 353 ;
354 [label=<friedman_mse = 0.231<br/>samples = 11<br/>value = -0.545>, fillcolor="#f6d1b7"] ;
353 -> 354 ;
355 [label=<friedman_mse = 0.172<br/>samples = 59<br/>value = 1.119>, fillcolor="#eb9d65"] ;
353 -> 355 ;
356 [label=<feature_18 &le; 5.594<br/>friedman_mse = 0.246<br/>samples = 113<br/>value = -0.066>, fillcolor="#f2c29f"] ;
352 -> 356 ;
357 [label=<friedman_mse = 0.215<br/>samples = 51<br/>value = 0.745>, fillcolor="#eda977"] ;
356 -> 357 ;
358 [label=<friedman_mse = 0.175<br/>samples = 62<br/>value = -1.097>, fillcolor="#f9e3d2"] ;
356 -> 358 ;
359 [label=<feature_24 &le; 0.975<br/>friedman_mse = 0.087<br/>samples = 188<br/>value = -0.404>, fillcolor="#f5cdb0"] ;
345 -> 359 ;
360 [label=<feature_11 &le; 12.057<br/>friedman_mse = 0.215<br/>samples = 32<br/>value = -0.188>, fillcolor="#f3c6a5"] ;
359 -> 360 ;
361 [label=<feature_2 &le; 123.37<br/>friedman_mse = 0.236<br/>samples = 21<br/>value = -0.119>, fillcolor="#f3c4a2"] ;
360 -> 361 ;
362 [label=<friedman_mse = -0.0<br/>samples = 11<br/>value = -2.0>, fillcolor="#ffffff"] ;
361 -> 362 ;
363 [label=<friedman_mse = 0.16<br/>samples = 10<br/>value = 1.2>, fillcolor="#ea9a61"] ;
361 -> 363 ;
364 [label=<friedman_mse = 0.149<br/>samples = 11<br/>value = -1.273>, fillcolor="#fae8db"] ;
360 -> 364 ;
365 [label=<feature_11 &le; 12.04<br/>friedman_mse = 0.049<br/>samples = 156<br/>value = -0.449>, fillcolor="#f5ceb2"] ;
359 -> 365 ;
366 [label=<feature_9 &le; 299.018<br/>friedman_mse = 0.011<br/>samples = 94<br/>value = -0.489>, fillcolor="#f5cfb4"] ;
365 -> 366 ;
367 [label=<friedman_mse = -0.0<br/>samples = 54<br/>value = -2.0>, fillcolor="#ffffff"] ;
366 -> 367 ;
368 [label=<friedman_mse = 0.024<br/>samples = 40<br/>value = -1.9>, fillcolor="#fefcfa"] ;
366 -> 368 ;
369 [label=<feature_22 &le; 231.249<br/>friedman_mse = 0.1<br/>samples = 62<br/>value = -0.387>, fillcolor="#f5ccaf"] ;
365 -> 369 ;
370 [label=<friedman_mse = 0.24<br/>samples = 10<br/>value = -0.4>, fillcolor="#f5cdb0"] ;
369 -> 370 ;
371 [label=<friedman_mse = 0.054<br/>samples = 52<br/>value = -1.769>, fillcolor="#fef8f4"] ;
369 -> 371 ;
372 [label=<friedman_mse = 0.216<br/>samples = 19<br/>value = 0.737>, fillcolor="#eda978"] ;
344 -> 372 ;
373 [label=<feature_19 &le; 29.449<br/>friedman_mse = 0.247<br/>samples = 1740<br/>value = -0.053>, fillcolor="#f2c29f"] ;
343 -> 373 ;
374 [label=<feature_1 &le; 55.5<br/>friedman_mse = 0.249<br/>samples = 1037<br/>value = 0.027>, fillcolor="#f2bf9b"] ;
373 -> 374 ;
375 [label=<feature_23 &le; 1.477<br/>friedman_mse = 0.085<br/>samples = 266<br/>value = -0.406>, fillcolor="#f5cdb0"] ;
374 -> 375 ;
376 [label=<feature_0 &le; 1.5<br/>friedman_mse = 0.05<br/>samples = 134<br/>value = -0.448>, fillcolor="#f5ceb2"] ;
375 -> 376 ;
377 [label=<feature_20 &le; 149.456<br/>friedman_mse = 0.024<br/>samples = 82<br/>value = -0.476>, fillcolor="#f5cfb4"] ;
376 -> 377 ;
378 [label=<friedman_mse = -0.0<br/>samples = 60<br/>value = -2.0>, fillcolor="#ffffff"] ;
377 -> 378 ;
379 [label=<friedman_mse = 0.083<br/>samples = 22<br/>value = -1.636>, fillcolor="#fdf4ed"] ;
377 -> 379 ;
380 [label=<feature_13 &le; 79.044<br/>friedman_mse = 0.087<br/>samples = 52<br/>value = -0.404>, fillcolor="#f5cdb0"] ;
376 -> 380 ;
381 [label=<friedman_mse = 0.029<br/>samples = 34<br/>value = -1.882>, fillcolor="#fefbf9"] ;
380 -> 381 ;
382 [label=<friedman_mse = 0.173<br/>samples = 18<br/>value = -1.111>, fillcolor="#f9e3d3"] ;
380 -> 382 ;
383 [label=<feature_7 &le; 5.071<br/>friedman_mse = 0.118<br/>samples = 132<br/>value = -0.364>, fillcolor="#f4cbae"] ;
375 -> 383 ;
384 [label=<feature_18 &le; 5.25<br/>friedman_mse = 0.036<br/>samples = 80<br/>value = -0.463>, fillcolor="#f5cfb3"] ;
383 -> 384 ;
385 [label=<friedman_mse = 0.065<br/>samples = 43<br/>value = -1.721>, fillcolor="#fdf6f1"] ;
384 -> 385 ;
386 [label=<friedman_mse = -0.0<br/>samples = 37<br/>value = -2.0>, fillcolor="#ffffff"] ;
384 -> 386 ;
387 [label=<feature_18 &le; 5.687<br/>friedman_mse = 0.205<br/>samples = 52<br/>value = -0.212>, fillcolor="#f3c7a6"] ;
383 -> 387 ;
388 [label=<friedman_mse = 0.08<br/>samples = 34<br/>value = -1.647>, fillcolor="#fdf4ee"] ;
387 -> 388 ;
389 [label=<friedman_mse = 0.222<br/>samples = 18<br/>value = 0.667>, fillcolor="#eeab7b"] ;
387 -> 389 ;
390 [label=<feature_9 &le; 247.899<br/>friedman_mse = 0.219<br/>samples = 771<br/>value = 0.176>, fillcolor="#f1ba93"] ;
374 -> 390 ;
391 [label=<feature_12 &le; 44.995<br/>friedman_mse = 0.189<br/>samples = 467<br/>value = 0.247>, fillcolor="#f0b890"] ;
390 -> 391 ;
392 [label=<feature_0 &le; 1.5<br/>friedman_mse = 0.167<br/>samples = 410<br/>value = 0.288>, fillcolor="#f0b78e"] ;
391 -> 392 ;
393 [label=<friedman_mse = 0.118<br/>samples = 337<br/>value = 1.454>, fillcolor="#e99254"] ;
392 -> 393 ;
394 [label=<friedman_mse = 0.246<br/>samples = 73<br/>value = -0.247>, fillcolor="#f4c8a8"] ;
392 -> 394 ;
395 [label=<feature_23 &le; 1.798<br/>friedman_mse = 0.248<br/>samples = 57<br/>value = -0.044>, fillcolor="#f2c19e"] ;
391 -> 395 ;
396 [label=<friedman_mse = 0.139<br/>samples = 24<br/>value = -1.333>, fillcolor="#fbeade"] ;
395 -> 396 ;
397 [label=<friedman_mse = 0.222<br/>samples = 33<br/>value = 0.667>, fillcolor="#eeab7b"] ;
395 -> 397 ;
398 [label=<feature_8 &le; 33.201<br/>friedman_mse = 0.246<br/>samples = 304<br/>value = 0.066>, fillcolor="#f2be99"] ;
390 -> 398 ;
399 [label=<friedman_mse = 0.059<br/>samples = 16<br/>value = -1.75>, fillcolor="#fdf7f3"] ;
398 -> 399 ;
400 [label=<feature_0 &le; 1.5<br/>friedman_mse = 0.241<br/>samples = 288<br/>value = 0.094>, fillcolor="#f1bd97"] ;
398 -> 400 ;
401 [label=<friedman_mse = 0.173<br/>samples = 153<br/>value = 1.111>, fillcolor="#eb9d65"] ;
400 -> 401 ;
402 [label=<friedman_mse = 0.237<br/>samples = 135<br/>value = -0.459>, fillcolor="#f5ceb3"] ;
400 -> 402 ;
403 [label=<feature_0 &le; 1.5<br/>friedman_mse = 0.221<br/>samples = 703<br/>value = -0.17>, fillcolor="#f3c5a4"] ;
373 -> 403 ;
404 [label=<feature_26 &le; 1.5<br/>friedman_mse = 0.242<br/>samples = 484<br/>value = -0.091>, fillcolor="#f3c3a0"] ;
403 -> 404 ;
405 [label=<feature_21 &le; 16.857<br/>friedman_mse = 0.224<br/>samples = 169<br/>value = 0.163>, fillcolor="#f1bb94"] ;
404 -> 405 ;
406 [label=<feature_12 &le; 39.771<br/>friedman_mse = 0.204<br/>samples = 154<br/>value = 0.214>, fillcolor="#f1b991"] ;
405 -> 406 ;
407 [label=<friedman_mse = 0.0<br/>samples = 28<br/>value = 2.0>, fillcolor="#e58139"] ;
406 -> 407 ;
408 [label=<friedman_mse = 0.227<br/>samples = 126<br/>value = 0.603>, fillcolor="#eead7e"] ;
406 -> 408 ;
409 [label=<friedman_mse = 0.116<br/>samples = 15<br/>value = -1.467>, fillcolor="#fceee5"] ;
405 -> 409 ;
410 [label=<feature_23 &le; 1.379<br/>friedman_mse = 0.198<br/>samples = 315<br/>value = -0.227>, fillcolor="#f3c7a7"] ;
404 -> 410 ;
411 [label=<feature_13 &le; 92.116<br/>friedman_mse = 0.076<br/>samples = 72<br/>value = -0.417>, fillcolor="#f5cdb1"] ;
410 -> 411 ;
412 [label=<friedman_mse = 0.017<br/>samples = 57<br/>value = -1.93>, fillcolor="#fffdfc"] ;
411 -> 412 ;
413 [label=<friedman_mse = 0.222<br/>samples = 15<br/>value = -0.667>, fillcolor="#f6d5bd"] ;
411 -> 413 ;
414 [label=<feature_11 &le; 11.91<br/>friedman_mse = 0.221<br/>samples = 243<br/>value = -0.171>, fillcolor="#f3c5a4"] ;
410 -> 414 ;
415 [label=<friedman_mse = 0.039<br/>samples = 74<br/>value = -1.838>, fillcolor="#fefaf7"] ;
414 -> 415 ;
416 [label=<friedman_mse = 0.248<br/>samples = 169<br/>value = -0.178>, fillcolor="#f3c6a5"] ;
414 -> 416 ;
417 [label=<feature_18 &le; 5.582<br/>friedman_mse = 0.131<br/>samples = 219<br/>value = -0.345>, fillcolor="#f4cbad"] ;
403 -> 417 ;
418 [label=<feature_1 &le; 70.5<br/>friedman_mse = 0.205<br/>samples = 97<br/>value = -0.211>, fillcolor="#f3c7a6"] ;
417 -> 418 ;
419 [label=<feature_20 &le; 128.627<br/>friedman_mse = 0.124<br/>samples = 69<br/>value = -0.355>, fillcolor="#f4cbae"] ;
418 -> 419 ;
420 [label=<friedman_mse = 0.249<br/>samples = 13<br/>value = -0.154>, fillcolor="#f3c5a4"] ;
419 -> 420 ;
421 [label=<friedman_mse = 0.066<br/>samples = 56<br/>value = -1.714>, fillcolor="#fdf6f1"] ;
419 -> 421 ;
422 [label=<feature_8 &le; 34.301<br/>friedman_mse = 0.23<br/>samples = 28<br/>value = 0.143>, fillcolor="#f1bb95"] ;
418 -> 422 ;
423 [label=<friedman_mse = 0.245<br/>samples = 14<br/>value = -0.286>, fillcolor="#f4c9aa"] ;
422 -> 423 ;
424 [label=<friedman_mse = 0.122<br/>samples = 14<br/>value = 1.429>, fillcolor="#e99355"] ;
422 -> 424 ;
425 [label=<feature_16 &le; 6.406<br/>friedman_mse = 0.047<br/>samples = 122<br/>value = -0.451>, fillcolor="#f5ceb2"] ;
417 -> 425 ;
426 [label=<feature_18 &le; 5.628<br/>friedman_mse = 0.02<br/>samples = 98<br/>value = -0.48>, fillcolor="#f5cfb4"] ;
425 -> 426 ;
427 [label=<friedman_mse = 0.036<br/>samples = 54<br/>value = -1.852>, fillcolor="#fefaf8"] ;
426 -> 427 ;
428 [label=<friedman_mse = 0.0<br/>samples = 44<br/>value = -2.0>, fillcolor="#ffffff"] ;
426 -> 428 ;
429 [label=<feature_3 &le; 69.0<br/>friedman_mse = 0.139<br/>samples = 24<br/>value = -0.333>, fillcolor="#f4caac"] ;
425 -> 429 ;
430 [label=<friedman_mse = 0.0<br/>samples = 11<br/>value = -2.0>, fillcolor="#ffffff"] ;
429 -> 430 ;
431 [label=<friedman_mse = 0.213<br/>samples = 13<br/>value = -0.769>, fillcolor="#f7d8c2"] ;
429 -> 431 ;
432 [label=<feature_25 &le; 5.5<br/>friedman_mse = 0.226<br/>samples = 30351<br/>value = 0.155>, fillcolor="#f1bb94"] ;
302 -> 432 ;
433 [label=<friedman_mse = -0.0<br/>samples = 1869<br/>value = 2.0>, fillcolor="#e58139"] ;
432 -> 433 ;
434 [label=<feature_6 &le; 0.4<br/>friedman_mse = 0.232<br/>samples = 28482<br/>value = 0.133>, fillcolor="#f1bc95"] ;
432 -> 434 ;
435 [label=<feature_17 &le; 70.72<br/>friedman_mse = 0.25<br/>samples = 5793<br/>value = 0.01>, fillcolor="#f2c09c"] ;
434 -> 435 ;
436 [label=<feature_0 &le; 1.5<br/>friedman_mse = 0.183<br/>samples = 1513<br/>value = -0.259>, fillcolor="#f4c8a9"] ;
435 -> 436 ;
437 [label=<feature_16 &le; 5.239<br/>friedman_mse = 0.248<br/>samples = 534<br/>value = -0.039>, fillcolor="#f2c19e"] ;
436 -> 437 ;
438 [label=<feature_9 &le; 223.11<br/>friedman_mse = 0.245<br/>samples = 365<br/>value = 0.07>, fillcolor="#f2be99"] ;
437 -> 438 ;
439 [label=<feature_19 &le; 12.442<br/>friedman_mse = 0.248<br/>samples = 159<br/>value = -0.041>, fillcolor="#f2c19e"] ;
438 -> 439 ;
440 [label=<friedman_mse = 0.0<br/>samples = 10<br/>value = -2.0>, fillcolor="#ffffff"] ;
439 -> 440 ;
441 [label=<friedman_mse = 0.25<br/>samples = 149<br/>value = -0.04>, fillcolor="#f2c19e"] ;
439 -> 441 ;
442 [label=<feature_19 &le; 16.125<br/>friedman_mse = 0.226<br/>samples = 206<br/>value = 0.155>, fillcolor="#f1bb94"] ;
438 -> 442 ;
443 [label=<friedman_mse = 0.122<br/>samples = 21<br/>value = -1.429>, fillcolor="#fbede3"] ;
442 -> 443 ;
444 [label=<friedman_mse = 0.204<br/>samples = 185<br/>value = 0.854>, fillcolor="#eca572"] ;
442 -> 444 ;
445 [label=<feature_2 &le; 131.167<br/>friedman_mse = 0.174<br/>samples = 169<br/>value = -0.275>, fillcolor="#f4c9aa"] ;
437 -> 445 ;
446 [label=<feature_17 &le; 65.525<br/>friedman_mse = 0.085<br/>samples = 106<br/>value = -0.406>, fillcolor="#f5cdb0"] ;
445 -> 446 ;
447 [label=<friedman_mse = -0.0<br/>samples = 40<br/>value = -2.0>, fillcolor="#ffffff"] ;
446 -> 447 ;
448 [label=<friedman_mse = 0.129<br/>samples = 66<br/>value = -1.394>, fillcolor="#fbece1"] ;
446 -> 448 ;
449 [label=<feature_14 &le; 23.894<br/>friedman_mse = 0.247<br/>samples = 63<br/>value = -0.056>, fillcolor="#f2c29f"] ;
445 -> 449 ;
450 [label=<friedman_mse = 0.217<br/>samples = 41<br/>value = 0.732>, fillcolor="#eda978"] ;
449 -> 450 ;
451 [label=<friedman_mse = -0.0<br/>samples = 22<br/>value = -2.0>, fillcolor="#ffffff"] ;
449 -> 451 ;
452 [label=<feature_1 &le; 66.5<br/>friedman_mse = 0.106<br/>samples = 979<br/>value = -0.379>, fillcolor="#f4ccaf"] ;
436 -> 452 ;
453 [label=<feature_9 &le; 337.057<br/>friedman_mse = 0.048<br/>samples = 719<br/>value = -0.45>, fillcolor="#f5ceb2"] ;
452 -> 453 ;
454 [label=<feature_6 &le; 0.392<br/>friedman_mse = 0.026<br/>samples = 599<br/>value = -0.473>, fillcolor="#f5cfb3"] ;
453 -> 454 ;
455 [label=<friedman_mse = 0.037<br/>samples = 315<br/>value = -1.848>, fillcolor="#fefaf7"] ;
454 -> 455 ;
456 [label=<friedman_mse = 0.014<br/>samples = 284<br/>value = -1.944>, fillcolor="#fffdfc"] ;
454 -> 456 ;
457 [label=<feature_8 &le; 33.083<br/>friedman_mse = 0.139<br/>samples = 120<br/>value = -0.333>, fillcolor="#f4caac"] ;
453 -> 457 ;
458 [label=<friedman_mse = 0.23<br/>samples = 42<br/>value = -0.571>, fillcolor="#f6d2b8"] ;
457 -> 458 ;
459 [label=<friedman_mse = 0.06<br/>samples = 78<br/>value = -1.744>, fillcolor="#fdf7f2"] ;
457 -> 459 ;
460 [label=<feature_3 &le; 67.905<br/>friedman_mse = 0.216<br/>samples = 260<br/>value = -0.185>, fillcolor="#f3c6a5"] ;
452 -> 460 ;
461 [label=<feature_12 &le; 42.943<br/>friedman_mse = 0.249<br/>samples = 153<br/>value = -0.023>, fillcolor="#f2c19d"] ;
460 -> 461 ;
462 [label=<friedman_mse = 0.248<br/>samples = 121<br/>value = 0.182>, fillcolor="#f1ba93"] ;
461 -> 462 ;
463 [label=<friedman_mse = 0.171<br/>samples = 32<br/>value = -1.125>, fillcolor="#f9e3d4"] ;
461 -> 463 ;
464 [label=<feature_6 &le; 0.283<br/>friedman_mse = 0.077<br/>samples = 107<br/>value = -0.416>, fillcolor="#f5cdb1"] ;
460 -> 464 ;
465 [label=<friedman_mse = 0.173<br/>samples = 27<br/>value = -1.111>, fillcolor="#f9e3d3"] ;
464 -> 465 ;
466 [label=<friedman_mse = 0.036<br/>samples = 80<br/>value = -1.85>, fillcolor="#fefaf8"] ;
464 -> 466 ;
467 [label=<feature_17 &le; 106.125<br/>friedman_mse = 0.239<br/>samples = 4280<br/>value = 0.105>, fillcolor="#f1bd97"] ;
435 -> 467 ;
468 [label=<feature_21 &le; 8.55<br/>friedman_mse = 0.244<br/>samples = 3611<br/>value = 0.08>, fillcolor="#f1bd98"] ;
467 -> 468 ;
469 [label=<feature_12 &le; 41.984<br/>friedman_mse = 0.21<br/>samples = 558<br/>value = -0.199>, fillcolor="#f3c6a6"] ;
468 -> 469 ;
470 [label=<feature_21 &le; 8.545<br/>friedman_mse = 0.24<br/>samples = 307<br/>value = -0.099>, fillcolor="#f3c3a1"] ;
469 -> 470 ;
471 [label=<friedman_mse = 0.244<br/>samples = 200<br/>value = 0.3>, fillcolor="#f0b78d"] ;
470 -> 471 ;
472 [label=<friedman_mse = 0.069<br/>samples = 107<br/>value = -1.701>, fillcolor="#fdf6f0"] ;
470 -> 472 ;
473 [label=<feature_22 &le; 489.197<br/>friedman_mse = 0.147<br/>samples = 251<br/>value = -0.321>, fillcolor="#f4caac"] ;
469 -> 473 ;
474 [label=<friedman_mse = 0.133<br/>samples = 234<br/>value = -1.368>, fillcolor="#fbebe0"] ;
473 -> 474 ;
475 [label=<friedman_mse = 0.249<br/>samples = 17<br/>value = -0.118>, fillcolor="#f3c4a2"] ;
473 -> 475 ;
476 [label=<feature_25 &le; 5.5<br/>friedman_mse = 0.233<br/>samples = 3053<br/>value = 0.131>, fillcolor="#f1bc96"] ;
468 -> 476 ;
477 [label=<feature_15 &le; 23.744<br/>friedman_mse = 0.126<br/>samples = 244<br/>value = -0.352>, fillcolor="#f4cbad"] ;
476 -> 477 ;
478 [label=<friedman_mse = 0.167<br/>samples = 137<br/>value = -1.153>, fillcolor="#f9e4d5"] ;
477 -> 478 ;
479 [label=<friedman_mse = 0.061<br/>samples = 107<br/>value = -1.738>, fillcolor="#fdf7f2"] ;
477 -> 479 ;
480 [label=<feature_17 &le; 106.079<br/>friedman_mse = 0.22<br/>samples = 2809<br/>value = 0.173>, fillcolor="#f1bb93"] ;
476 -> 480 ;
481 [label=<friedman_mse = 0.217<br/>samples = 2727<br/>value = 0.731>, fillcolor="#eda978"] ;
480 -> 481 ;
482 [label=<friedman_mse = 0.229<br/>samples = 82<br/>value = -0.585>, fillcolor="#f6d2b9"] ;
480 -> 482 ;
483 [label=<feature_5 &le; 4.603<br/>friedman_mse = 0.193<br/>samples = 669<br/>value = 0.238>, fillcolor="#f0b890"] ;
467 -> 483 ;
484 [label=<feature_8 &le; 33.939<br/>friedman_mse = 0.245<br/>samples = 28<br/>value = -0.071>, fillcolor="#f2c2a0"] ;
483 -> 484 ;
485 [label=<friedman_mse = 0.116<br/>samples = 15<br/>value = -1.467>, fillcolor="#fceee5"] ;
484 -> 485 ;
486 [label=<friedman_mse = 0.178<br/>samples = 13<br/>value = 1.077>, fillcolor="#eb9e67"] ;
484 -> 486 ;
487 [label=<feature_25 &le; 5.5<br/>friedman_mse = 0.187<br/>samples = 641<br/>value = 0.252>, fillcolor="#f0b890"] ;
483 -> 487 ;
488 [label=<feature_14 &le; 25.861<br/>friedman_mse = 0.086<br/>samples = 21<br/>value = -0.405>, fillcolor="#f5cdb0"] ;
487 -> 488 ;
489 [label=<friedman_mse = 0.16<br/>samples = 10<br/>value = -1.2>, fillcolor="#fae6d7"] ;
488 -> 489 ;
490 [label=<friedman_mse = 0.0<br/>samples = 11<br/>value = -2.0>, fillcolor="#ffffff"] ;
488 -> 490 ;
491 [label=<feature_3 &le; 73.862<br/>friedman_mse = 0.175<br/>samples = 620<br/>value = 0.274>, fillcolor="#f0b78e"] ;
487 -> 491 ;
492 [label=<friedman_mse = 0.131<br/>samples = 522<br/>value = 1.379>, fillcolor="#e99558"] ;
491 -> 492 ;
493 [label=<friedman_mse = 0.24<br/>samples = 98<br/>value = -0.408>, fillcolor="#f5cdb0"] ;
491 -> 493 ;
494 [label=<feature_23 &le; 0.881<br/>friedman_mse = 0.223<br/>samples = 22689<br/>value = 0.164>, fillcolor="#f1bb94"] ;
434 -> 494 ;
495 [label=<feature_7 &le; 5.149<br/>friedman_mse = 0.248<br/>samples = 2459<br/>value = -0.049>, fillcolor="#f2c29e"] ;
494 -> 495 ;
496 [label=<feature_6 &le; 0.5<br/>friedman_mse = 0.249<br/>samples = 2231<br/>value = -0.024>, fillcolor="#f2c19d"] ;
495 -> 496 ;
497 [label=<friedman_mse = -0.0<br/>samples = 146<br/>value = 2.0>, fillcolor="#e58139"] ;
496 -> 497 ;
498 [label=<feature_0 &le; 1.5<br/>friedman_mse = 0.246<br/>samples = 2085<br/>value = -0.061>, fillcolor="#f2c29f"] ;
496 -> 498 ;
499 [label=<feature_2 &le; 112.054<br/>friedman_mse = 0.239<br/>samples = 1199<br/>value = 0.105>, fillcolor="#f1bd97"] ;
498 -> 499 ;
500 [label=<friedman_mse = 0.25<br/>samples = 190<br/>value = -0.021>, fillcolor="#f2c19d"] ;
499 -> 500 ;
501 [label=<friedman_mse = 0.234<br/>samples = 1009<br/>value = 0.501>, fillcolor="#efb083"] ;
499 -> 501 ;
502 [label=<feature_26 &le; 1.5<br/>friedman_mse = 0.169<br/>samples = 886<br/>value = -0.284>, fillcolor="#f4c9aa"] ;
498 -> 502 ;
503 [label=<friedman_mse = 0.249<br/>samples = 180<br/>value = -0.133>, fillcolor="#f3c4a3"] ;
502 -> 503 ;
504 [label=<friedman_mse = 0.129<br/>samples = 706<br/>value = -1.394>, fillcolor="#fbece1"] ;
502 -> 504 ;
505 [label=<feature_25 &le; 5.604<br/>friedman_mse = 0.164<br/>samples = 228<br/>value = -0.294>, fillcolor="#f4c9ab"] ;
495 -> 505 ;
506 [label=<feature_11 &le; 12.673<br/>friedman_mse = 0.086<br/>samples = 84<br/>value = -0.405>, fillcolor="#f5cdb0"] ;
505 -> 506 ;
507 [label=<friedman_mse = 0.222<br/>samples = 15<br/>value = -0.667>, fillcolor="#f6d5bd"] ;
506 -> 507 ;
508 [label=<feature_20 &le; 121.389<br/>friedman_mse = 0.042<br/>samples = 69<br/>value = -0.457>, fillcolor="#f5ceb3"] ;
506 -> 508 ;
509 [label=<friedman_mse = -0.0<br/>samples = 31<br/>value = -2.0>, fillcolor="#ffffff"] ;
508 -> 509 ;
510 [label=<friedman_mse = 0.073<br/>samples = 38<br/>value = -1.684>, fillcolor="#fdf5ef"] ;
508 -> 510 ;
511 [label=<feature_15 &le; 18.828<br/>friedman_mse = 0.197<br/>samples = 144<br/>value = -0.229>, fillcolor="#f3c7a7"] ;
505 -> 511 ;
512 [label=<feature_26 &le; 1.5<br/>friedman_mse = 0.25<br/>samples = 49<br/>value = 0.01>, fillcolor="#f2c09b"] ;
511 -> 512 ;
513 [label=<friedman_mse = 0.09<br/>samples = 20<br/>value = 1.6>, fillcolor="#e88e4d"] ;
512 -> 513 ;
514 [label=<friedman_mse = 0.183<br/>samples = 29<br/>value = -1.035>, fillcolor="#f9e1cf"] ;
512 -> 514 ;
515 [label=<feature_18 &le; 5.599<br/>friedman_mse = 0.126<br/>samples = 95<br/>value = -0.353>, fillcolor="#f4cbad"] ;
511 -> 515 ;
516 [label=<friedman_mse = 0.073<br/>samples = 63<br/>value = -1.683>, fillcolor="#fdf5ef"] ;
515 -> 516 ;
517 [label=<friedman_mse = 0.202<br/>samples = 32<br/>value = -0.875>, fillcolor="#f8dcc7"] ;
515 -> 517 ;
518 [label=<feature_1 &le; 51.5<br/>friedman_mse = 0.214<br/>samples = 20230<br/>value = 0.19>, fillcolor="#f1ba93"] ;
494 -> 518 ;
519 [label=<feature_0 &le; 1.5<br/>friedman_mse = 0.166<br/>samples = 2927<br/>value = -0.29>, fillcolor="#f4c9aa"] ;
518 -> 519 ;
520 [label=<feature_22 &le; 458.048<br/>friedman_mse = 0.196<br/>samples = 1656<br/>value = -0.232>, fillcolor="#f4c7a7"] ;
519 -> 520 ;
521 [label=<feature_16 &le; 5.737<br/>friedman_mse = 0.173<br/>samples = 1404<br/>value = -0.277>, fillcolor="#f4c9aa"] ;
520 -> 521 ;
522 [label=<friedman_mse = 0.199<br/>samples = 1027<br/>value = -0.902>, fillcolor="#f8dcc9"] ;
521 -> 522 ;
523 [label=<friedman_mse = 0.075<br/>samples = 377<br/>value = -1.671>, fillcolor="#fdf5ef"] ;
521 -> 523 ;
524 [label=<feature_17 &le; 80.728<br/>friedman_mse = 0.25<br/>samples = 252<br/>value = 0.02>, fillcolor="#f2bf9b"] ;
520 -> 524 ;
525 [label=<friedman_mse = 0.02<br/>samples = 50<br/>value = -1.92>, fillcolor="#fefcfb"] ;
524 -> 525 ;
526 [label=<friedman_mse = 0.229<br/>samples = 202<br/>value = 0.574>, fillcolor="#eeae80"] ;
524 -> 526 ;
527 [label=<feature_10 &le; 7.537<br/>friedman_mse = 0.116<br/>samples = 1271<br/>value = -0.365>, fillcolor="#f4ccae"] ;
519 -> 527 ;
528 [label=<feature_1 &le; 46.5<br/>friedman_mse = 0.016<br/>samples = 241<br/>value = -0.483>, fillcolor="#f5cfb4"] ;
527 -> 528 ;
529 [label=<friedman_mse = 0.006<br/>samples = 173<br/>value = -1.977>, fillcolor="#fffefe"] ;
528 -> 529 ;
530 [label=<friedman_mse = 0.042<br/>samples = 68<br/>value = -1.824>, fillcolor="#fef9f6"] ;
528 -> 530 ;
531 [label=<feature_1 &le; 43.5<br/>friedman_mse = 0.136<br/>samples = 1030<br/>value = -0.338>, fillcolor="#f4cbad"] ;
527 -> 531 ;
532 [label=<friedman_mse = 0.077<br/>samples = 522<br/>value = -1.663>, fillcolor="#fdf4ee"] ;
531 -> 532 ;
533 [label=<friedman_mse = 0.184<br/>samples = 508<br/>value = -1.032>, fillcolor="#f9e0cf"] ;
531 -> 533 ;
534 [label=<feature_15 &le; 34.989<br/>friedman_mse = 0.176<br/>samples = 17303<br/>value = 0.271>, fillcolor="#f0b78f"] ;
518 -> 534 ;
535 [label=<feature_1 &le; 62.5<br/>friedman_mse = 0.172<br/>samples = 16590<br/>value = 0.28>, fillcolor="#f0b78e"] ;
534 -> 535 ;
536 [label=<feature_4 &le; 73.208<br/>friedman_mse = 0.225<br/>samples = 3953<br/>value = 0.157>, fillcolor="#f1bb94"] ;
535 -> 536 ;
537 [label=<friedman_mse = 0.25<br/>samples = 770<br/>value = 0.036>, fillcolor="#f2bf9a"] ;
536 -> 537 ;
538 [label=<friedman_mse = 0.213<br/>samples = 3183<br/>value = 0.772>, fillcolor="#eda876"] ;
536 -> 538 ;
539 [label=<feature_4 &le; 63.101<br/>friedman_mse = 0.149<br/>samples = 12637<br/>value = 0.318>, fillcolor="#f0b68c"] ;
535 -> 539 ;
540 [label=<friedman_mse = 0.213<br/>samples = 1393<br/>value = 0.765>, fillcolor="#eda876"] ;
539 -> 540 ;
541 [label=<friedman_mse = 0.139<br/>samples = 11244<br/>value = 1.334>, fillcolor="#e9965a"] ;
539 -> 541 ;
542 [label=<feature_12 &le; 46.993<br/>friedman_mse = 0.245<br/>samples = 713<br/>value = 0.074>, fillcolor="#f2be98"] ;
534 -> 542 ;
543 [label=<feature_26 &le; 1.5<br/>friedman_mse = 0.24<br/>samples = 671<br/>value = 0.098>, fillcolor="#f1bd97"] ;
542 -> 543 ;
544 [label=<friedman_mse = 0.185<br/>samples = 303<br/>value = 1.023>, fillcolor="#eba069"] ;
543 -> 544 ;
545 [label=<friedman_mse = 0.249<br/>samples = 368<br/>value = -0.13>, fillcolor="#f3c4a2"] ;
543 -> 545 ;
546 [label=<feature_7 &le; 4.843<br/>friedman_mse = 0.154<br/>samples = 42<br/>value = -0.31>, fillcolor="#f4caab"] ;
542 -> 546 ;
547 [label=<friedman_mse = 0.0<br/>samples = 20<br/>value = -2.0>, fillcolor="#ffffff"] ;
546 -> 547 ;
548 [label=<friedman_mse = 0.231<br/>samples = 22<br/>value = -0.545>, fillcolor="#f6d1b7"] ;
546 -> 548 ;
}